<?xml version="1.0"?>
<opencv_storage>
<cascade>
  <stageType>BOOST</stageType>
  <featureType>HAAR</featureType>
  <height>50</height>
  <width>50</width>
  <stageParams>
    <boostType>GAB</boostType>
    <minHitRate>9.9000000953674316e-01</minHitRate>
    <maxFalseAlarm>3.0000001192092896e-01</maxFalseAlarm>
    <weightTrimRate>9.4999999999999996e-01</weightTrimRate>
    <maxDepth>1</maxDepth>
    <maxWeakCount>100</maxWeakCount></stageParams>
  <featureParams>
    <maxCatCount>0</maxCatCount>
    <featSize>1</featSize>
    <mode>BASIC</mode></featureParams>
  <stageNum>9</stageNum>
  <stages>
    <!-- stage 0 -->
    <_>
      <maxWeakCount>6</maxWeakCount>
      <stageThreshold>-8.9891016483306885e-01</stageThreshold>
      <weakClassifiers>
        <_>
          <internalNodes>
            0 -1 127 -6.2452936545014381e-03</internalNodes>
          <leafValues>
            8.5368955135345459e-01 -6.5458935499191284e-01</leafValues></_>
        <_>
          <internalNodes>
            0 -1 87 1.3078271877020597e-03</internalNodes>
          <leafValues>
            -6.6110348701477051e-01 7.0173782110214233e-01</leafValues></_>
        <_>
          <internalNodes>
            0 -1 106 -1.2757971882820129e-02</internalNodes>
          <leafValues>
            6.8692916631698608e-01 -4.6228048205375671e-01</leafValues></_>
        <_>
          <internalNodes>
            0 -1 117 -6.8122856318950653e-03</internalNodes>
          <leafValues>
            3.4695562720298767e-01 -8.6079823970794678e-01</leafValues></_>
        <_>
          <internalNodes>
            0 -1 69 -2.7021285495720804e-04</internalNodes>
          <leafValues>
            6.4521503448486328e-01 -3.1582811474800110e-01</leafValues></_>
        <_>
          <internalNodes>
            0 -1 165 -4.0243714465759695e-04</internalNodes>
          <leafValues>
            7.3362833261489868e-01 -3.0127400159835815e-01</leafValues></_></weakClassifiers></_>
    <!-- stage 1 -->
    <_>
      <maxWeakCount>9</maxWeakCount>
      <stageThreshold>-9.0528351068496704e-01</stageThreshold>
      <weakClassifiers>
        <_>
          <internalNodes>
            0 -1 61 2.5592451915144920e-02</internalNodes>
          <leafValues>
            -4.3387979269027710e-01 8.0606061220169067e-01</leafValues></_>
        <_>
          <internalNodes>
            0 -1 122 1.0086953639984131e-02</internalNodes>
          <leafValues>
            -4.2630246281623840e-01 5.7648783922195435e-01</leafValues></_>
        <_>
          <internalNodes>
            0 -1 162 8.2137138815596700e-04</internalNodes>
          <leafValues>
            -3.3195933699607849e-01 5.7547700405120850e-01</leafValues></_>
        <_>
          <internalNodes>
            0 -1 46 6.2179495580494404e-03</internalNodes>
          <leafValues>
            -1.9330337643623352e-01 7.8243267536163330e-01</leafValues></_>
        <_>
          <internalNodes>
            0 -1 118 -1.3754613464698195e-03</internalNodes>
          <leafValues>
            2.2541417181491852e-01 -7.3483753204345703e-01</leafValues></_>
        <_>
          <internalNodes>
            0 -1 121 -3.8240063935518265e-02</internalNodes>
          <leafValues>
            2.7953001856803894e-01 -5.3174585103988647e-01</leafValues></_>
        <_>
          <internalNodes>
            0 -1 114 -1.6687856987118721e-04</internalNodes>
          <leafValues>
            4.7408184409141541e-01 -3.2186573743820190e-01</leafValues></_>
        <_>
          <internalNodes>
            0 -1 30 -4.9905022606253624e-03</internalNodes>
          <leafValues>
            5.9742140769958496e-01 -2.3615254461765289e-01</leafValues></_>
        <_>
          <internalNodes>
            0 -1 130 -1.4163851737976074e-03</internalNodes>
          <leafValues>
            2.2685649991035461e-01 -6.3856124877929688e-01</leafValues></_></weakClassifiers></_>
    <!-- stage 2 -->
    <_>
      <maxWeakCount>16</maxWeakCount>
      <stageThreshold>-7.3159545660018921e-01</stageThreshold>
      <weakClassifiers>
        <_>
          <internalNodes>
            0 -1 83 3.7851226516067982e-03</internalNodes>
          <leafValues>
            -5.2526801824569702e-01 6.5426445007324219e-01</leafValues></_>
        <_>
          <internalNodes>
            0 -1 109 -2.9170203953981400e-02</internalNodes>
          <leafValues>
            6.1734277009963989e-01 -3.5560837388038635e-01</leafValues></_>
        <_>
          <internalNodes>
            0 -1 11 6.0851243324577808e-03</internalNodes>
          <leafValues>
            -2.1219532191753387e-01 6.7212873697280884e-01</leafValues></_>
        <_>
          <internalNodes>
            0 -1 120 -5.4461637046188116e-04</internalNodes>
          <leafValues>
            4.3950876593589783e-01 -3.2473644614219666e-01</leafValues></_>
        <_>
          <internalNodes>
            0 -1 20 3.2027810811996460e-03</internalNodes>
          <leafValues>
            -2.3440474271774292e-01 6.3286274671554565e-01</leafValues></_>
        <_>
          <internalNodes>
            0 -1 43 -2.2201563697308302e-03</internalNodes>
          <leafValues>
            5.6080979108810425e-01 -2.2611021995544434e-01</leafValues></_>
        <_>
          <internalNodes>
            0 -1 101 -2.5814487598836422e-03</internalNodes>
          <leafValues>
            3.9060577750205994e-01 -3.2362547516822815e-01</leafValues></_>
        <_>
          <internalNodes>
            0 -1 143 -6.5706454915925860e-04</internalNodes>
          <leafValues>
            4.9551838636398315e-01 -2.6116362214088440e-01</leafValues></_>
        <_>
          <internalNodes>
            0 -1 62 -2.3886009585112333e-03</internalNodes>
          <leafValues>
            6.6979712247848511e-01 -1.5671767294406891e-01</leafValues></_>
        <_>
          <internalNodes>
            0 -1 60 -1.9324433524161577e-03</internalNodes>
          <leafValues>
            4.1620343923568726e-01 -2.5710147619247437e-01</leafValues></_>
        <_>
          <internalNodes>
            0 -1 6 1.6052913852035999e-03</internalNodes>
          <leafValues>
            -2.0347760617733002e-01 5.5197864770889282e-01</leafValues></_>
        <_>
          <internalNodes>
            0 -1 104 1.7359934281557798e-03</internalNodes>
          <leafValues>
            -1.6852208971977234e-01 5.5609411001205444e-01</leafValues></_>
        <_>
          <internalNodes>
            0 -1 136 1.0990460868924856e-03</internalNodes>
          <leafValues>
            -4.6201416850090027e-01 2.4343414604663849e-01</leafValues></_>
        <_>
          <internalNodes>
            0 -1 9 -2.3911471944302320e-03</internalNodes>
          <leafValues>
            4.0625077486038208e-01 -2.6287111639976501e-01</leafValues></_>
        <_>
          <internalNodes>
            0 -1 164 -4.6522711636498570e-04</internalNodes>
          <leafValues>
            4.7537824511528015e-01 -2.1472664177417755e-01</leafValues></_>
        <_>
          <internalNodes>
            0 -1 47 4.2796442285180092e-03</internalNodes>
          <leafValues>
            -1.5573845803737640e-01 6.3827168941497803e-01</leafValues></_></weakClassifiers></_>
    <!-- stage 3 -->
    <_>
      <maxWeakCount>18</maxWeakCount>
      <stageThreshold>-7.0320355892181396e-01</stageThreshold>
      <weakClassifiers>
        <_>
          <internalNodes>
            0 -1 53 2.8468623757362366e-02</internalNodes>
          <leafValues>
            -1.6960148513317108e-01 7.4413323402404785e-01</leafValues></_>
        <_>
          <internalNodes>
            0 -1 96 -1.0089809074997902e-02</internalNodes>
          <leafValues>
            3.3262440562248230e-01 -5.0126254558563232e-01</leafValues></_>
        <_>
          <internalNodes>
            0 -1 84 -8.7501183152198792e-03</internalNodes>
          <leafValues>
            4.2646616697311401e-01 -3.2472601532936096e-01</leafValues></_>
        <_>
          <internalNodes>
            0 -1 153 1.3299060519784689e-03</internalNodes>
          <leafValues>
            -3.2288143038749695e-01 3.7372416257858276e-01</leafValues></_>
        <_>
          <internalNodes>
            0 -1 65 -1.4937837840989232e-03</internalNodes>
          <leafValues>
            7.3598504066467285e-01 -1.5588730573654175e-01</leafValues></_>
        <_>
          <internalNodes>
            0 -1 17 -1.6235273797065020e-03</internalNodes>
          <leafValues>
            4.4798693060874939e-01 -2.3847933113574982e-01</leafValues></_>
        <_>
          <internalNodes>
            0 -1 110 -6.3682987820357084e-04</internalNodes>
          <leafValues>
            1.7306353151798248e-01 -6.5637940168380737e-01</leafValues></_>
        <_>
          <internalNodes>
            0 -1 26 -4.6160356141626835e-03</internalNodes>
          <leafValues>
            3.8772752881050110e-01 -2.6642060279846191e-01</leafValues></_>
        <_>
          <internalNodes>
            0 -1 16 4.6129827387630939e-04</internalNodes>
          <leafValues>
            -3.5651758313179016e-01 2.5101178884506226e-01</leafValues></_>
        <_>
          <internalNodes>
            0 -1 23 4.2376673081889749e-04</internalNodes>
          <leafValues>
            -2.5141197443008423e-01 3.7529543042182922e-01</leafValues></_>
        <_>
          <internalNodes>
            0 -1 161 -7.9789326991885900e-04</internalNodes>
          <leafValues>
            4.4227376580238342e-01 -2.1159774065017700e-01</leafValues></_>
        <_>
          <internalNodes>
            0 -1 107 -1.0684141889214516e-02</internalNodes>
          <leafValues>
            1.6057485342025757e-01 -6.7212736606597900e-01</leafValues></_>
        <_>
          <internalNodes>
            0 -1 97 8.6350701167248189e-05</internalNodes>
          <leafValues>
            -4.2512890696525574e-01 2.3996119201183319e-01</leafValues></_>
        <_>
          <internalNodes>
            0 -1 77 8.2157272845506668e-03</internalNodes>
          <leafValues>
            -5.8190435171127319e-01 1.8023732304573059e-01</leafValues></_>
        <_>
          <internalNodes>
            0 -1 5 -1.5797470696270466e-03</internalNodes>
          <leafValues>
            3.6690691113471985e-01 -2.4617810547351837e-01</leafValues></_>
        <_>
          <internalNodes>
            0 -1 59 2.3264118935912848e-03</internalNodes>
          <leafValues>
            -1.2469465285539627e-01 6.6025060415267944e-01</leafValues></_>
        <_>
          <internalNodes>
            0 -1 88 1.2047272175550461e-02</internalNodes>
          <leafValues>
            -1.6000974178314209e-01 5.3974521160125732e-01</leafValues></_>
        <_>
          <internalNodes>
            0 -1 89 -1.0301079601049423e-02</internalNodes>
          <leafValues>
            5.0949144363403320e-01 -1.8454618752002716e-01</leafValues></_></weakClassifiers></_>
    <!-- stage 4 -->
    <_>
      <maxWeakCount>21</maxWeakCount>
      <stageThreshold>-5.2844625711441040e-01</stageThreshold>
      <weakClassifiers>
        <_>
          <internalNodes>
            0 -1 71 -2.3658934980630875e-02</internalNodes>
          <leafValues>
            6.1500614881515503e-01 -2.5839793682098389e-01</leafValues></_>
        <_>
          <internalNodes>
            0 -1 92 -5.4372008889913559e-03</internalNodes>
          <leafValues>
            3.9080956578254700e-01 -3.2978934049606323e-01</leafValues></_>
        <_>
          <internalNodes>
            0 -1 66 -1.8081448506563902e-03</internalNodes>
          <leafValues>
            5.6464844942092896e-01 -2.0954371988773346e-01</leafValues></_>
        <_>
          <internalNodes>
            0 -1 166 5.9041113127022982e-04</internalNodes>
          <leafValues>
            -1.9206666946411133e-01 5.5486196279525757e-01</leafValues></_>
        <_>
          <internalNodes>
            0 -1 51 4.2052809149026871e-03</internalNodes>
          <leafValues>
            -1.7292866110801697e-01 6.3982558250427246e-01</leafValues></_>
        <_>
          <internalNodes>
            0 -1 132 -1.5103940386325121e-03</internalNodes>
          <leafValues>
            4.0112838149070740e-01 -2.9362377524375916e-01</leafValues></_>
        <_>
          <internalNodes>
            0 -1 27 -1.4057264663279057e-02</internalNodes>
          <leafValues>
            8.2672232389450073e-01 -1.1087970435619354e-01</leafValues></_>
        <_>
          <internalNodes>
            0 -1 67 -2.5590616278350353e-03</internalNodes>
          <leafValues>
            4.3516033887863159e-01 -2.1282558143138885e-01</leafValues></_>
        <_>
          <internalNodes>
            0 -1 4 5.6492951698601246e-03</internalNodes>
          <leafValues>
            -1.8852302432060242e-01 4.6017274260520935e-01</leafValues></_>
        <_>
          <internalNodes>
            0 -1 139 -3.9381001144647598e-02</internalNodes>
          <leafValues>
            1.3132497668266296e-01 -7.7253574132919312e-01</leafValues></_>
        <_>
          <internalNodes>
            0 -1 99 -2.3517939262092113e-03</internalNodes>
          <leafValues>
            4.1081491112709045e-01 -2.7094456553459167e-01</leafValues></_>
        <_>
          <internalNodes>
            0 -1 10 -5.1172729581594467e-03</internalNodes>
          <leafValues>
            4.5254519581794739e-01 -1.8011066317558289e-01</leafValues></_>
        <_>
          <internalNodes>
            0 -1 141 -2.4996371939778328e-03</internalNodes>
          <leafValues>
            4.3149599432945251e-01 -2.1929396688938141e-01</leafValues></_>
        <_>
          <internalNodes>
            0 -1 32 4.0824551135301590e-02</internalNodes>
          <leafValues>
            -1.4856517314910889e-01 6.0620599985122681e-01</leafValues></_>
        <_>
          <internalNodes>
            0 -1 0 1.2634690850973129e-02</internalNodes>
          <leafValues>
            -1.3761323690414429e-01 5.6231468915939331e-01</leafValues></_>
        <_>
          <internalNodes>
            0 -1 1 -3.3470612764358521e-01</internalNodes>
          <leafValues>
            7.4642467498779297e-01 -1.1455423384904861e-01</leafValues></_>
        <_>
          <internalNodes>
            0 -1 155 7.0594353019259870e-05</internalNodes>
          <leafValues>
            -2.4903433024883270e-01 3.2772582769393921e-01</leafValues></_>
        <_>
          <internalNodes>
            0 -1 79 4.0713316411711276e-04</internalNodes>
          <leafValues>
            -1.9467043876647949e-01 4.2846316099166870e-01</leafValues></_>
        <_>
          <internalNodes>
            0 -1 108 -2.2621997632086277e-03</internalNodes>
          <leafValues>
            1.5893912315368652e-01 -5.5399692058563232e-01</leafValues></_>
        <_>
          <internalNodes>
            0 -1 42 -8.0778449773788452e-03</internalNodes>
          <leafValues>
            6.0737508535385132e-01 -1.4108411967754364e-01</leafValues></_>
        <_>
          <internalNodes>
            0 -1 52 -1.4067394658923149e-04</internalNodes>
          <leafValues>
            -4.5402145385742188e-01 1.9574427604675293e-01</leafValues></_></weakClassifiers></_>
    <!-- stage 5 -->
    <_>
      <maxWeakCount>21</maxWeakCount>
      <stageThreshold>-6.6959625482559204e-01</stageThreshold>
      <weakClassifiers>
        <_>
          <internalNodes>
            0 -1 81 9.1360807418823242e-03</internalNodes>
          <leafValues>
            -4.3581080436706543e-01 5.8517700433731079e-01</leafValues></_>
        <_>
          <internalNodes>
            0 -1 7 7.7404573559761047e-02</internalNodes>
          <leafValues>
            -2.6167017221450806e-01 5.0566780567169189e-01</leafValues></_>
        <_>
          <internalNodes>
            0 -1 144 1.8122692126780748e-03</internalNodes>
          <leafValues>
            -2.0242634415626526e-01 5.4043936729431152e-01</leafValues></_>
        <_>
          <internalNodes>
            0 -1 45 4.9816230311989784e-03</internalNodes>
          <leafValues>
            -1.6600041091442108e-01 6.0305225849151611e-01</leafValues></_>
        <_>
          <internalNodes>
            0 -1 158 9.4552978407591581e-04</internalNodes>
          <leafValues>
            -2.0939143002033234e-01 6.5026593208312988e-01</leafValues></_>
        <_>
          <internalNodes>
            0 -1 85 -1.1944935657083988e-02</internalNodes>
          <leafValues>
            3.6716514825820923e-01 -2.8133302927017212e-01</leafValues></_>
        <_>
          <internalNodes>
            0 -1 74 -1.0911265853792429e-03</internalNodes>
          <leafValues>
            3.0386346578598022e-01 -3.1643649935722351e-01</leafValues></_>
        <_>
          <internalNodes>
            0 -1 170 -1.7655720002949238e-03</internalNodes>
          <leafValues>
            4.9370577931404114e-01 -1.8826192617416382e-01</leafValues></_>
        <_>
          <internalNodes>
            0 -1 29 -1.1294889263808727e-03</internalNodes>
          <leafValues>
            4.1009435057640076e-01 -2.0888496935367584e-01</leafValues></_>
        <_>
          <internalNodes>
            0 -1 55 3.5610196646302938e-03</internalNodes>
          <leafValues>
            -2.2935163974761963e-01 4.1608867049217224e-01</leafValues></_>
        <_>
          <internalNodes>
            0 -1 50 -5.7369675487279892e-03</internalNodes>
          <leafValues>
            6.0400032997131348e-01 -1.3579776883125305e-01</leafValues></_>
        <_>
          <internalNodes>
            0 -1 126 -1.4963657595217228e-03</internalNodes>
          <leafValues>
            1.8992744386196136e-01 -4.6008744835853577e-01</leafValues></_>
        <_>
          <internalNodes>
            0 -1 31 2.0710565149784088e-02</internalNodes>
          <leafValues>
            -1.2535797059535980e-01 7.5805151462554932e-01</leafValues></_>
        <_>
          <internalNodes>
            0 -1 75 -5.9133541071787477e-05</internalNodes>
          <leafValues>
            -4.8864448070526123e-01 1.8084570765495300e-01</leafValues></_>
        <_>
          <internalNodes>
            0 -1 133 -3.2543288543820381e-03</internalNodes>
          <leafValues>
            5.1539444923400879e-01 -1.6512940824031830e-01</leafValues></_>
        <_>
          <internalNodes>
            0 -1 116 2.9730275273323059e-03</internalNodes>
          <leafValues>
            1.7206171154975891e-01 -5.3526192903518677e-01</leafValues></_>
        <_>
          <internalNodes>
            0 -1 73 1.8269848078489304e-04</internalNodes>
          <leafValues>
            -3.0001822113990784e-01 2.6824429631233215e-01</leafValues></_>
        <_>
          <internalNodes>
            0 -1 25 -1.4330034900922328e-04</internalNodes>
          <leafValues>
            -3.6034068465232849e-01 2.1675065159797668e-01</leafValues></_>
        <_>
          <internalNodes>
            0 -1 24 -9.6784122288227081e-03</internalNodes>
          <leafValues>
            6.5831232070922852e-01 -1.1286502331495285e-01</leafValues></_>
        <_>
          <internalNodes>
            0 -1 8 -9.6513971220701933e-04</internalNodes>
          <leafValues>
            2.8810447454452515e-01 -2.5346893072128296e-01</leafValues></_>
        <_>
          <internalNodes>
            0 -1 70 3.1932089477777481e-03</internalNodes>
          <leafValues>
            -1.2676310539245605e-01 5.8708006143569946e-01</leafValues></_></weakClassifiers></_>
    <!-- stage 6 -->
    <_>
      <maxWeakCount>26</maxWeakCount>
      <stageThreshold>-6.8085336685180664e-01</stageThreshold>
      <weakClassifiers>
        <_>
          <internalNodes>
            0 -1 140 -1.0358832776546478e-02</internalNodes>
          <leafValues>
            7.0128887891769409e-01 -1.1563367396593094e-01</leafValues></_>
        <_>
          <internalNodes>
            0 -1 72 3.3595696091651917e-02</internalNodes>
          <leafValues>
            -2.4274061620235443e-01 5.1868313550949097e-01</leafValues></_>
        <_>
          <internalNodes>
            0 -1 169 -1.3834596611559391e-03</internalNodes>
          <leafValues>
            4.5915114879608154e-01 -2.5479745864868164e-01</leafValues></_>
        <_>
          <internalNodes>
            0 -1 138 -1.2263925746083260e-03</internalNodes>
          <leafValues>
            4.2707493901252747e-01 -2.2615292668342590e-01</leafValues></_>
        <_>
          <internalNodes>
            0 -1 22 -5.9951595030725002e-03</internalNodes>
          <leafValues>
            5.6054919958114624e-01 -1.7339733242988586e-01</leafValues></_>
        <_>
          <internalNodes>
            0 -1 134 9.3091541202738881e-05</internalNodes>
          <leafValues>
            -2.1825741231441498e-01 4.0274327993392944e-01</leafValues></_>
        <_>
          <internalNodes>
            0 -1 56 6.0124590527266264e-04</internalNodes>
          <leafValues>
            -1.6813710331916809e-01 4.5760124921798706e-01</leafValues></_>
        <_>
          <internalNodes>
            0 -1 148 7.5208680937066674e-04</internalNodes>
          <leafValues>
            -1.9248542189598083e-01 3.8253915309906006e-01</leafValues></_>
        <_>
          <internalNodes>
            0 -1 49 1.1067719606216997e-04</internalNodes>
          <leafValues>
            1.2958709895610809e-01 -5.7924818992614746e-01</leafValues></_>
        <_>
          <internalNodes>
            0 -1 2 8.3472318947315216e-03</internalNodes>
          <leafValues>
            -1.1841301620006561e-01 6.4351630210876465e-01</leafValues></_>
        <_>
          <internalNodes>
            0 -1 40 -1.1848687427118421e-03</internalNodes>
          <leafValues>
            5.6001538038253784e-01 -1.2696820497512817e-01</leafValues></_>
        <_>
          <internalNodes>
            0 -1 39 1.6110118012875319e-03</internalNodes>
          <leafValues>
            -1.5600249171257019e-01 4.3587705492973328e-01</leafValues></_>
        <_>
          <internalNodes>
            0 -1 13 -4.1671083308756351e-03</internalNodes>
          <leafValues>
            3.6710819602012634e-01 -1.9495525956153870e-01</leafValues></_>
        <_>
          <internalNodes>
            0 -1 18 9.9617261439561844e-03</internalNodes>
          <leafValues>
            -1.3156256079673767e-01 5.9480357170104980e-01</leafValues></_>
        <_>
          <internalNodes>
            0 -1 111 1.7470495367888361e-04</internalNodes>
          <leafValues>
            -2.5622817873954773e-01 3.0802807211875916e-01</leafValues></_>
        <_>
          <internalNodes>
            0 -1 159 1.2178076431155205e-03</internalNodes>
          <leafValues>
            -1.6373659670352936e-01 5.0621157884597778e-01</leafValues></_>
        <_>
          <internalNodes>
            0 -1 91 -4.2017377912998199e-02</internalNodes>
          <leafValues>
            3.5384541749954224e-01 -2.1925215423107147e-01</leafValues></_>
        <_>
          <internalNodes>
            0 -1 80 -1.2062304653227329e-02</internalNodes>
          <leafValues>
            1.1019475013017654e-01 -7.1393501758575439e-01</leafValues></_>
        <_>
          <internalNodes>
            0 -1 54 7.5438802014105022e-05</internalNodes>
          <leafValues>
            1.3507302105426788e-01 -4.8247650265693665e-01</leafValues></_>
        <_>
          <internalNodes>
            0 -1 14 -3.2099857926368713e-03</internalNodes>
          <leafValues>
            3.9616078138351440e-01 -1.9103299081325531e-01</leafValues></_>
        <_>
          <internalNodes>
            0 -1 129 1.7405091784894466e-03</internalNodes>
          <leafValues>
            -2.8428021073341370e-01 2.7526399493217468e-01</leafValues></_>
        <_>
          <internalNodes>
            0 -1 28 6.3770457927603275e-05</internalNodes>
          <leafValues>
            1.5434046089649200e-01 -4.9294018745422363e-01</leafValues></_>
        <_>
          <internalNodes>
            0 -1 150 -7.3951101512648165e-05</internalNodes>
          <leafValues>
            -3.1975841522216797e-01 2.0575417578220367e-01</leafValues></_>
        <_>
          <internalNodes>
            0 -1 125 8.0351682845503092e-04</internalNodes>
          <leafValues>
            8.8840238749980927e-02 -7.3287034034729004e-01</leafValues></_>
        <_>
          <internalNodes>
            0 -1 163 -3.3995832782238722e-03</internalNodes>
          <leafValues>
            4.2900589108467102e-01 -1.7415857315063477e-01</leafValues></_>
        <_>
          <internalNodes>
            0 -1 151 1.2372452765703201e-03</internalNodes>
          <leafValues>
            -2.0527194440364838e-01 3.5433641076087952e-01</leafValues></_></weakClassifiers></_>
    <!-- stage 7 -->
    <_>
      <maxWeakCount>28</maxWeakCount>
      <stageThreshold>-6.9476777315139771e-01</stageThreshold>
      <weakClassifiers>
        <_>
          <internalNodes>
            0 -1 95 3.4049656242132187e-02</internalNodes>
          <leafValues>
            -1.5158636868000031e-01 5.9974175691604614e-01</leafValues></_>
        <_>
          <internalNodes>
            0 -1 21 7.6315529644489288e-02</internalNodes>
          <leafValues>
            -2.7103272080421448e-01 3.9851829409599304e-01</leafValues></_>
        <_>
          <internalNodes>
            0 -1 160 1.4738090103492141e-03</internalNodes>
          <leafValues>
            -3.0677646398544312e-01 3.6949148774147034e-01</leafValues></_>
        <_>
          <internalNodes>
            0 -1 76 -5.3684030717704445e-05</internalNodes>
          <leafValues>
            3.7476176023483276e-01 -2.5824746489524841e-01</leafValues></_>
        <_>
          <internalNodes>
            0 -1 131 -4.5446970034390688e-05</internalNodes>
          <leafValues>
            -5.5367588996887207e-01 1.4535006880760193e-01</leafValues></_>
        <_>
          <internalNodes>
            0 -1 146 -5.9005682123824954e-04</internalNodes>
          <leafValues>
            4.0987199544906616e-01 -1.8024259805679321e-01</leafValues></_>
        <_>
          <internalNodes>
            0 -1 78 -9.4663500785827637e-03</internalNodes>
          <leafValues>
            3.6986869573593140e-01 -2.0787322521209717e-01</leafValues></_>
        <_>
          <internalNodes>
            0 -1 145 -3.2323993742465973e-02</internalNodes>
          <leafValues>
            1.2626941502094269e-01 -6.2176555395126343e-01</leafValues></_>
        <_>
          <internalNodes>
            0 -1 36 1.1369936168193817e-02</internalNodes>
          <leafValues>
            -1.6539967060089111e-01 4.7227576375007629e-01</leafValues></_>
        <_>
          <internalNodes>
            0 -1 82 2.3302002809941769e-03</internalNodes>
          <leafValues>
            -1.7285670340061188e-01 4.5420023798942566e-01</leafValues></_>
        <_>
          <internalNodes>
            0 -1 93 2.2026736405678093e-04</internalNodes>
          <leafValues>
            -3.8522830605506897e-01 2.0440867543220520e-01</leafValues></_>
        <_>
          <internalNodes>
            0 -1 44 -1.3680305331945419e-02</internalNodes>
          <leafValues>
            8.6872208118438721e-01 -8.7754480540752411e-02</leafValues></_>
        <_>
          <internalNodes>
            0 -1 113 -1.6300459392368793e-03</internalNodes>
          <leafValues>
            5.7379472255706787e-01 -1.0125095397233963e-01</leafValues></_>
        <_>
          <internalNodes>
            0 -1 147 2.3504076525568962e-03</internalNodes>
          <leafValues>
            -1.7436170578002930e-01 4.0386161208152771e-01</leafValues></_>
        <_>
          <internalNodes>
            0 -1 37 9.9269280326552689e-05</internalNodes>
          <leafValues>
            1.2791949510574341e-01 -5.3879636526107788e-01</leafValues></_>
        <_>
          <internalNodes>
            0 -1 38 3.0048348708078265e-04</internalNodes>
          <leafValues>
            -2.4602121114730835e-01 3.0172625184059143e-01</leafValues></_>
        <_>
          <internalNodes>
            0 -1 105 1.3612825423479080e-03</internalNodes>
          <leafValues>
            -2.2972308099269867e-01 3.1303730607032776e-01</leafValues></_>
        <_>
          <internalNodes>
            0 -1 94 -6.3748750835657120e-03</internalNodes>
          <leafValues>
            5.1788699626922607e-01 -1.7505869269371033e-01</leafValues></_>
        <_>
          <internalNodes>
            0 -1 19 -9.2033420514781028e-05</internalNodes>
          <leafValues>
            -4.8242247104644775e-01 1.4868366718292236e-01</leafValues></_>
        <_>
          <internalNodes>
            0 -1 57 -1.8349196761846542e-04</internalNodes>
          <leafValues>
            3.0841422080993652e-01 -2.0810525119304657e-01</leafValues></_>
        <_>
          <internalNodes>
            0 -1 167 8.2333461614325643e-04</internalNodes>
          <leafValues>
            -1.9971428811550140e-01 3.3803641796112061e-01</leafValues></_>
        <_>
          <internalNodes>
            0 -1 68 1.1748098768293858e-03</internalNodes>
          <leafValues>
            -1.8450149893760681e-01 3.5423448681831360e-01</leafValues></_>
        <_>
          <internalNodes>
            0 -1 58 -2.2577834315598011e-03</internalNodes>
          <leafValues>
            -5.1373165845870972e-01 1.3409826159477234e-01</leafValues></_>
        <_>
          <internalNodes>
            0 -1 98 -1.0379825253039598e-03</internalNodes>
          <leafValues>
            9.6893131732940674e-02 -6.2556207180023193e-01</leafValues></_>
        <_>
          <internalNodes>
            0 -1 100 -7.4243295239284635e-04</internalNodes>
          <leafValues>
            -7.1967238187789917e-01 7.4543580412864685e-02</leafValues></_>
        <_>
          <internalNodes>
            0 -1 123 3.4341386053711176e-03</internalNodes>
          <leafValues>
            -1.3827879726886749e-01 5.3627526760101318e-01</leafValues></_>
        <_>
          <internalNodes>
            0 -1 64 -4.5013702474534512e-03</internalNodes>
          <leafValues>
            6.4332526922225952e-01 -8.9312016963958740e-02</leafValues></_>
        <_>
          <internalNodes>
            0 -1 115 1.5032171504572034e-03</internalNodes>
          <leafValues>
            9.8912268877029419e-02 -7.2526675462722778e-01</leafValues></_></weakClassifiers></_>
    <!-- stage 8 -->
    <_>
      <maxWeakCount>26</maxWeakCount>
      <stageThreshold>-6.7491251230239868e-01</stageThreshold>
      <weakClassifiers>
        <_>
          <internalNodes>
            0 -1 124 -3.5391949117183685e-02</internalNodes>
          <leafValues>
            6.5191298723220825e-01 -6.4667291939258575e-02</leafValues></_>
        <_>
          <internalNodes>
            0 -1 3 4.8379376530647278e-03</internalNodes>
          <leafValues>
            -2.2815182805061340e-01 3.9546018838882446e-01</leafValues></_>
        <_>
          <internalNodes>
            0 -1 15 4.2392962495796382e-04</internalNodes>
          <leafValues>
            -3.7229758501052856e-01 2.5551569461822510e-01</leafValues></_>
        <_>
          <internalNodes>
            0 -1 156 4.1243992745876312e-03</internalNodes>
          <leafValues>
            -1.8659937381744385e-01 4.6044719219207764e-01</leafValues></_>
        <_>
          <internalNodes>
            0 -1 12 -4.5763729140162468e-03</internalNodes>
          <leafValues>
            4.6221667528152466e-01 -2.6987889409065247e-01</leafValues></_>
        <_>
          <internalNodes>
            0 -1 48 -1.3888971880078316e-03</internalNodes>
          <leafValues>
            5.0107568502426147e-01 -1.4761829376220703e-01</leafValues></_>
        <_>
          <internalNodes>
            0 -1 90 4.9366452731192112e-04</internalNodes>
          <leafValues>
            -3.7973487377166748e-01 2.5036537647247314e-01</leafValues></_>
        <_>
          <internalNodes>
            0 -1 63 -8.2005932927131653e-03</internalNodes>
          <leafValues>
            -1.0525173693895340e-01 8.0059862136840820e-01</leafValues></_>
        <_>
          <internalNodes>
            0 -1 35 -1.5547694638371468e-03</internalNodes>
          <leafValues>
            4.0161642432212830e-01 -1.6758064925670624e-01</leafValues></_>
        <_>
          <internalNodes>
            0 -1 135 3.7177425110712647e-04</internalNodes>
          <leafValues>
            -1.6395886242389679e-01 4.6230992674827576e-01</leafValues></_>
        <_>
          <internalNodes>
            0 -1 119 -1.7156405374407768e-04</internalNodes>
          <leafValues>
            2.5811484456062317e-01 -2.9228258132934570e-01</leafValues></_>
        <_>
          <internalNodes>
            0 -1 34 2.0782796200364828e-03</internalNodes>
          <leafValues>
            -2.0236161351203918e-01 3.3240142464637756e-01</leafValues></_>
        <_>
          <internalNodes>
            0 -1 168 -4.6539613977074623e-03</internalNodes>
          <leafValues>
            8.3876520395278931e-01 -8.9948460459709167e-02</leafValues></_>
        <_>
          <internalNodes>
            0 -1 112 -1.8950942903757095e-03</internalNodes>
          <leafValues>
            1.2641884386539459e-01 -6.7943125963211060e-01</leafValues></_>
        <_>
          <internalNodes>
            0 -1 149 -2.1022823639214039e-03</internalNodes>
          <leafValues>
            6.1632788181304932e-01 -1.2402703613042831e-01</leafValues></_>
        <_>
          <internalNodes>
            0 -1 102 -2.5851335376501083e-03</internalNodes>
          <leafValues>
            6.5626019239425659e-01 -1.0105362534523010e-01</leafValues></_>
        <_>
          <internalNodes>
            0 -1 86 3.8820703048259020e-04</internalNodes>
          <leafValues>
            -4.9855321645736694e-01 1.7635686695575714e-01</leafValues></_>
        <_>
          <internalNodes>
            0 -1 33 -1.0603433474898338e-03</internalNodes>
          <leafValues>
            -6.9553583860397339e-01 9.8003126680850983e-02</leafValues></_>
        <_>
          <internalNodes>
            0 -1 142 6.1198405455797911e-04</internalNodes>
          <leafValues>
            -2.1113987267017365e-01 3.4906154870986938e-01</leafValues></_>
        <_>
          <internalNodes>
            0 -1 128 -7.5025390833616257e-03</internalNodes>
          <leafValues>
            6.8364137411117554e-01 -8.8922500610351562e-02</leafValues></_>
        <_>
          <internalNodes>
            0 -1 103 -2.0529231987893581e-03</internalNodes>
          <leafValues>
            3.9906516671180725e-01 -1.6309861838817596e-01</leafValues></_>
        <_>
          <internalNodes>
            0 -1 154 1.3433966087177396e-03</internalNodes>
          <leafValues>
            -1.4202432334423065e-01 5.8282887935638428e-01</leafValues></_>
        <_>
          <internalNodes>
            0 -1 152 3.4327097237110138e-03</internalNodes>
          <leafValues>
            -1.1585056036710739e-01 5.9195715188980103e-01</leafValues></_>
        <_>
          <internalNodes>
            0 -1 137 -8.8554527610540390e-03</internalNodes>
          <leafValues>
            -6.1878973245620728e-01 1.3284251093864441e-01</leafValues></_>
        <_>
          <internalNodes>
            0 -1 41 -1.0381689935456961e-04</internalNodes>
          <leafValues>
            -5.7798123359680176e-01 1.0508361458778381e-01</leafValues></_>
        <_>
          <internalNodes>
            0 -1 157 5.8170757256448269e-04</internalNodes>
          <leafValues>
            -1.5252648293972015e-01 4.3937674164772034e-01</leafValues></_></weakClassifiers></_></stages>
  <features>
    <_>
      <rects>
        <_>
          0 0 33 6 -1.</_>
        <_>
          0 3 33 3 2.</_></rects>
      <tilted>0</tilted></_>
    <_>
      <rects>
        <_>
          0 2 40 46 -1.</_>
        <_>
          0 25 40 23 2.</_></rects>
      <tilted>0</tilted></_>
    <_>
      <rects>
        <_>
          0 5 4 17 -1.</_>
        <_>
          2 5 2 17 2.</_></rects>
      <tilted>0</tilted></_>
    <_>
      <rects>
        <_>
          0 6 4 40 -1.</_>
        <_>
          2 6 2 40 2.</_></rects>
      <tilted>0</tilted></_>
    <_>
      <rects>
        <_>
          0 9 4 35 -1.</_>
        <_>
          2 9 2 35 2.</_></rects>
      <tilted>0</tilted></_>
    <_>
      <rects>
        <_>
          0 12 4 20 -1.</_>
        <_>
          0 12 2 10 2.</_>
        <_>
          2 22 2 10 2.</_></rects>
      <tilted>0</tilted></_>
    <_>
      <rects>
        <_>
          1 12 2 26 -1.</_>
        <_>
          2 12 1 26 2.</_></rects>
      <tilted>0</tilted></_>
    <_>
      <rects>
        <_>
          1 21 38 14 -1.</_>
        <_>
          20 21 19 14 2.</_></rects>
      <tilted>0</tilted></_>
    <_>
      <rects>
        <_>
          2 27 10 10 -1.</_>
        <_>
          2 27 5 5 2.</_>
        <_>
          7 32 5 5 2.</_></rects>
      <tilted>0</tilted></_>
    <_>
      <rects>
        <_>
          3 15 2 16 -1.</_>
        <_>
          3 23 2 8 2.</_></rects>
      <tilted>0</tilted></_>
    <_>
      <rects>
        <_>
          3 31 8 12 -1.</_>
        <_>
          7 31 4 12 2.</_></rects>
      <tilted>0</tilted></_>
    <_>
      <rects>
        <_>
          4 1 44 4 -1.</_>
        <_>
          4 3 44 2 2.</_></rects>
      <tilted>0</tilted></_>
    <_>
      <rects>
        <_>
          4 5 19 4 -1.</_>
        <_>
          4 7 19 2 2.</_></rects>
      <tilted>0</tilted></_>
    <_>
      <rects>
        <_>
          5 9 2 22 -1.</_>
        <_>
          5 20 2 11 2.</_></rects>
      <tilted>0</tilted></_>
    <_>
      <rects>
        <_>
          5 20 4 24 -1.</_>
        <_>
          5 20 2 12 2.</_>
        <_>
          7 32 2 12 2.</_></rects>
      <tilted>0</tilted></_>
    <_>
      <rects>
        <_>
          6 40 34 8 -1.</_>
        <_>
          6 44 34 4 2.</_></rects>
      <tilted>0</tilted></_>
    <_>
      <rects>
        <_>
          6 43 37 6 -1.</_>
        <_>
          6 46 37 3 2.</_></rects>
      <tilted>0</tilted></_>
    <_>
      <rects>
        <_>
          7 47 43 2 -1.</_>
        <_>
          7 48 43 1 2.</_></rects>
      <tilted>0</tilted></_>
    <_>
      <rects>
        <_>
          8 6 32 4 -1.</_>
        <_>
          8 6 16 2 2.</_>
        <_>
          24 8 16 2 2.</_></rects>
      <tilted>0</tilted></_>
    <_>
      <rects>
        <_>
          8 20 2 2 -1.</_>
        <_>
          8 20 1 1 2.</_>
        <_>
          9 21 1 1 2.</_></rects>
      <tilted>0</tilted></_>
    <_>
      <rects>
        <_>
          8 44 12 4 -1.</_>
        <_>
          8 46 12 2 2.</_></rects>
      <tilted>0</tilted></_>
    <_>
      <rects>
        <_>
          9 2 30 30 -1.</_>
        <_>
          9 2 15 15 2.</_>
        <_>
          24 17 15 15 2.</_></rects>
      <tilted>0</tilted></_>
    <_>
      <rects>
        <_>
          9 46 34 4 -1.</_>
        <_>
          9 46 17 2 2.</_>
        <_>
          26 48 17 2 2.</_></rects>
      <tilted>0</tilted></_>
    <_>
      <rects>
        <_>
          10 4 6 8 -1.</_>
        <_>
          10 4 3 4 2.</_>
        <_>
          13 8 3 4 2.</_></rects>
      <tilted>0</tilted></_>
    <_>
      <rects>
        <_>
          10 6 24 6 -1.</_>
        <_>
          10 6 12 3 2.</_>
        <_>
          22 9 12 3 2.</_></rects>
      <tilted>0</tilted></_>
    <_>
      <rects>
        <_>
          10 12 2 14 -1.</_>
        <_>
          11 12 1 14 2.</_></rects>
      <tilted>0</tilted></_>
    <_>
      <rects>
        <_>
          11 4 26 2 -1.</_>
        <_>
          24 4 13 2 2.</_></rects>
      <tilted>0</tilted></_>
    <_>
      <rects>
        <_>
          11 4 28 6 -1.</_>
        <_>
          11 4 14 3 2.</_>
        <_>
          25 7 14 3 2.</_></rects>
      <tilted>0</tilted></_>
    <_>
      <rects>
        <_>
          11 20 2 2 -1.</_>
        <_>
          11 20 1 1 2.</_>
        <_>
          12 21 1 1 2.</_></rects>
      <tilted>0</tilted></_>
    <_>
      <rects>
        <_>
          11 48 29 2 -1.</_>
        <_>
          11 49 29 1 2.</_></rects>
      <tilted>0</tilted></_>
    <_>
      <rects>
        <_>
          12 0 22 6 -1.</_>
        <_>
          12 0 11 3 2.</_>
        <_>
          23 3 11 3 2.</_></rects>
      <tilted>0</tilted></_>
    <_>
      <rects>
        <_>
          12 4 28 6 -1.</_>
        <_>
          12 4 14 3 2.</_>
        <_>
          26 7 14 3 2.</_></rects>
      <tilted>0</tilted></_>
    <_>
      <rects>
        <_>
          12 10 26 14 -1.</_>
        <_>
          12 10 13 7 2.</_>
        <_>
          25 17 13 7 2.</_></rects>
      <tilted>0</tilted></_>
    <_>
      <rects>
        <_>
          12 18 2 10 -1.</_>
        <_>
          12 18 1 5 2.</_>
        <_>
          13 23 1 5 2.</_></rects>
      <tilted>0</tilted></_>
    <_>
      <rects>
        <_>
          12 46 38 1 -1.</_>
        <_>
          31 46 19 1 2.</_></rects>
      <tilted>0</tilted></_>
    <_>
      <rects>
        <_>
          12 47 27 2 -1.</_>
        <_>
          12 48 27 1 2.</_></rects>
      <tilted>0</tilted></_>
    <_>
      <rects>
        <_>
          13 1 28 6 -1.</_>
        <_>
          13 4 28 3 2.</_></rects>
      <tilted>0</tilted></_>
    <_>
      <rects>
        <_>
          13 24 2 2 -1.</_>
        <_>
          13 24 1 1 2.</_>
        <_>
          14 25 1 1 2.</_></rects>
      <tilted>0</tilted></_>
    <_>
      <rects>
        <_>
          13 48 18 2 -1.</_>
        <_>
          13 48 9 1 2.</_>
        <_>
          22 49 9 1 2.</_></rects>
      <tilted>0</tilted></_>
    <_>
      <rects>
        <_>
          14 3 28 2 -1.</_>
        <_>
          14 4 28 1 2.</_></rects>
      <tilted>0</tilted></_>
    <_>
      <rects>
        <_>
          14 4 8 2 -1.</_>
        <_>
          14 5 8 1 2.</_></rects>
      <tilted>0</tilted></_>
    <_>
      <rects>
        <_>
          14 14 2 2 -1.</_>
        <_>
          14 14 1 1 2.</_>
        <_>
          15 15 1 1 2.</_></rects>
      <tilted>0</tilted></_>
    <_>
      <rects>
        <_>
          14 40 18 8 -1.</_>
        <_>
          14 40 9 4 2.</_>
        <_>
          23 44 9 4 2.</_></rects>
      <tilted>0</tilted></_>
    <_>
      <rects>
        <_>
          15 4 8 4 -1.</_>
        <_>
          15 6 8 2 2.</_></rects>
      <tilted>0</tilted></_>
    <_>
      <rects>
        <_>
          15 4 20 6 -1.</_>
        <_>
          15 4 10 3 2.</_>
        <_>
          25 7 10 3 2.</_></rects>
      <tilted>0</tilted></_>
    <_>
      <rects>
        <_>
          16 4 18 4 -1.</_>
        <_>
          16 4 9 2 2.</_>
        <_>
          25 6 9 2 2.</_></rects>
      <tilted>0</tilted></_>
    <_>
      <rects>
        <_>
          16 5 24 4 -1.</_>
        <_>
          16 5 12 2 2.</_>
        <_>
          28 7 12 2 2.</_></rects>
      <tilted>0</tilted></_>
    <_>
      <rects>
        <_>
          16 43 20 4 -1.</_>
        <_>
          16 43 10 2 2.</_>
        <_>
          26 45 10 2 2.</_></rects>
      <tilted>0</tilted></_>
    <_>
      <rects>
        <_>
          17 5 8 4 -1.</_>
        <_>
          17 5 4 2 2.</_>
        <_>
          21 7 4 2 2.</_></rects>
      <tilted>0</tilted></_>
    <_>
      <rects>
        <_>
          17 18 2 2 -1.</_>
        <_>
          17 18 1 1 2.</_>
        <_>
          18 19 1 1 2.</_></rects>
      <tilted>0</tilted></_>
    <_>
      <rects>
        <_>
          18 4 20 4 -1.</_>
        <_>
          18 4 10 2 2.</_>
        <_>
          28 6 10 2 2.</_></rects>
      <tilted>0</tilted></_>
    <_>
      <rects>
        <_>
          19 4 14 4 -1.</_>
        <_>
          19 4 7 2 2.</_>
        <_>
          26 6 7 2 2.</_></rects>
      <tilted>0</tilted></_>
    <_>
      <rects>
        <_>
          19 21 4 2 -1.</_>
        <_>
          19 21 2 1 2.</_>
        <_>
          21 22 2 1 2.</_></rects>
      <tilted>0</tilted></_>
    <_>
      <rects>
        <_>
          19 23 18 6 -1.</_>
        <_>
          28 23 9 6 2.</_></rects>
      <tilted>0</tilted></_>
    <_>
      <rects>
        <_>
          19 37 2 2 -1.</_>
        <_>
          19 37 1 1 2.</_>
        <_>
          20 38 1 1 2.</_></rects>
      <tilted>0</tilted></_>
    <_>
      <rects>
        <_>
          19 41 28 6 -1.</_>
        <_>
          19 41 14 3 2.</_>
        <_>
          33 44 14 3 2.</_></rects>
      <tilted>0</tilted></_>
    <_>
      <rects>
        <_>
          19 44 10 2 -1.</_>
        <_>
          19 44 5 1 2.</_>
        <_>
          24 45 5 1 2.</_></rects>
      <tilted>0</tilted></_>
    <_>
      <rects>
        <_>
          20 4 3 2 -1.</_>
        <_>
          20 5 3 1 2.</_></rects>
      <tilted>0</tilted></_>
    <_>
      <rects>
        <_>
          20 37 16 1 -1.</_>
        <_>
          28 37 8 1 2.</_></rects>
      <tilted>0</tilted></_>
    <_>
      <rects>
        <_>
          20 43 8 4 -1.</_>
        <_>
          20 43 4 2 2.</_>
        <_>
          24 45 4 2 2.</_></rects>
      <tilted>0</tilted></_>
    <_>
      <rects>
        <_>
          21 0 29 4 -1.</_>
        <_>
          21 2 29 2 2.</_></rects>
      <tilted>0</tilted></_>
    <_>
      <rects>
        <_>
          21 3 14 28 -1.</_>
        <_>
          21 3 7 14 2.</_>
        <_>
          28 17 7 14 2.</_></rects>
      <tilted>0</tilted></_>
    <_>
      <rects>
        <_>
          21 4 12 4 -1.</_>
        <_>
          21 4 6 2 2.</_>
        <_>
          27 6 6 2 2.</_></rects>
      <tilted>0</tilted></_>
    <_>
      <rects>
        <_>
          22 1 6 12 -1.</_>
        <_>
          22 5 6 4 2.</_></rects>
      <tilted>0</tilted></_>
    <_>
      <rects>
        <_>
          22 3 12 4 -1.</_>
        <_>
          22 3 6 2 2.</_>
        <_>
          28 5 6 2 2.</_></rects>
      <tilted>0</tilted></_>
    <_>
      <rects>
        <_>
          22 4 14 2 -1.</_>
        <_>
          22 4 7 1 2.</_>
        <_>
          29 5 7 1 2.</_></rects>
      <tilted>0</tilted></_>
    <_>
      <rects>
        <_>
          22 6 5 4 -1.</_>
        <_>
          22 8 5 2 2.</_></rects>
      <tilted>0</tilted></_>
    <_>
      <rects>
        <_>
          22 6 26 4 -1.</_>
        <_>
          22 6 13 2 2.</_>
        <_>
          35 8 13 2 2.</_></rects>
      <tilted>0</tilted></_>
    <_>
      <rects>
        <_>
          22 43 8 6 -1.</_>
        <_>
          22 43 4 3 2.</_>
        <_>
          26 46 4 3 2.</_></rects>
      <tilted>0</tilted></_>
    <_>
      <rects>
        <_>
          23 6 3 2 -1.</_>
        <_>
          23 7 3 1 2.</_></rects>
      <tilted>0</tilted></_>
    <_>
      <rects>
        <_>
          23 6 7 4 -1.</_>
        <_>
          23 8 7 2 2.</_></rects>
      <tilted>0</tilted></_>
    <_>
      <rects>
        <_>
          23 19 12 26 -1.</_>
        <_>
          23 19 6 13 2.</_>
        <_>
          29 32 6 13 2.</_></rects>
      <tilted>0</tilted></_>
    <_>
      <rects>
        <_>
          23 20 10 13 -1.</_>
        <_>
          28 20 5 13 2.</_></rects>
      <tilted>0</tilted></_>
    <_>
      <rects>
        <_>
          23 26 6 8 -1.</_>
        <_>
          23 26 3 4 2.</_>
        <_>
          26 30 3 4 2.</_></rects>
      <tilted>0</tilted></_>
    <_>
      <rects>
        <_>
          23 34 15 4 -1.</_>
        <_>
          23 36 15 2 2.</_></rects>
      <tilted>0</tilted></_>
    <_>
      <rects>
        <_>
          24 0 2 2 -1.</_>
        <_>
          24 0 1 1 2.</_>
        <_>
          25 1 1 1 2.</_></rects>
      <tilted>0</tilted></_>
    <_>
      <rects>
        <_>
          24 6 1 2 -1.</_>
        <_>
          24 7 1 1 2.</_></rects>
      <tilted>0</tilted></_>
    <_>
      <rects>
        <_>
          24 21 26 26 -1.</_>
        <_>
          24 21 13 13 2.</_>
        <_>
          37 34 13 13 2.</_></rects>
      <tilted>0</tilted></_>
    <_>
      <rects>
        <_>
          24 33 8 10 -1.</_>
        <_>
          24 38 8 5 2.</_></rects>
      <tilted>0</tilted></_>
    <_>
      <rects>
        <_>
          24 45 8 2 -1.</_>
        <_>
          24 45 4 1 2.</_>
        <_>
          28 46 4 1 2.</_></rects>
      <tilted>0</tilted></_>
    <_>
      <rects>
        <_>
          25 4 3 21 -1.</_>
        <_>
          25 11 3 7 2.</_></rects>
      <tilted>0</tilted></_>
    <_>
      <rects>
        <_>
          25 21 8 11 -1.</_>
        <_>
          29 21 4 11 2.</_></rects>
      <tilted>0</tilted></_>
    <_>
      <rects>
        <_>
          26 6 6 4 -1.</_>
        <_>
          26 8 6 2 2.</_></rects>
      <tilted>0</tilted></_>
    <_>
      <rects>
        <_>
          26 24 8 4 -1.</_>
        <_>
          30 24 4 4 2.</_></rects>
      <tilted>0</tilted></_>
    <_>
      <rects>
        <_>
          26 26 10 10 -1.</_>
        <_>
          26 26 5 5 2.</_>
        <_>
          31 31 5 5 2.</_></rects>
      <tilted>0</tilted></_>
    <_>
      <rects>
        <_>
          27 21 10 16 -1.</_>
        <_>
          27 21 5 8 2.</_>
        <_>
          32 29 5 8 2.</_></rects>
      <tilted>0</tilted></_>
    <_>
      <rects>
        <_>
          27 23 6 1 -1.</_>
        <_>
          30 23 3 1 2.</_></rects>
      <tilted>0</tilted></_>
    <_>
      <rects>
        <_>
          27 23 6 3 -1.</_>
        <_>
          30 23 3 3 2.</_></rects>
      <tilted>0</tilted></_>
    <_>
      <rects>
        <_>
          28 8 10 18 -1.</_>
        <_>
          28 8 5 9 2.</_>
        <_>
          33 17 5 9 2.</_></rects>
      <tilted>0</tilted></_>
    <_>
      <rects>
        <_>
          28 13 16 8 -1.</_>
        <_>
          28 13 8 4 2.</_>
        <_>
          36 17 8 4 2.</_></rects>
      <tilted>0</tilted></_>
    <_>
      <rects>
        <_>
          28 17 6 12 -1.</_>
        <_>
          28 17 3 6 2.</_>
        <_>
          31 23 3 6 2.</_></rects>
      <tilted>0</tilted></_>
    <_>
      <rects>
        <_>
          28 23 11 20 -1.</_>
        <_>
          28 33 11 10 2.</_></rects>
      <tilted>0</tilted></_>
    <_>
      <rects>
        <_>
          28 31 5 10 -1.</_>
        <_>
          28 36 5 5 2.</_></rects>
      <tilted>0</tilted></_>
    <_>
      <rects>
        <_>
          29 15 2 11 -1.</_>
        <_>
          30 15 1 11 2.</_></rects>
      <tilted>0</tilted></_>
    <_>
      <rects>
        <_>
          29 20 6 15 -1.</_>
        <_>
          32 20 3 15 2.</_></rects>
      <tilted>0</tilted></_>
    <_>
      <rects>
        <_>
          29 21 18 22 -1.</_>
        <_>
          29 21 9 11 2.</_>
        <_>
          38 32 9 11 2.</_></rects>
      <tilted>0</tilted></_>
    <_>
      <rects>
        <_>
          29 22 8 3 -1.</_>
        <_>
          29 23 8 1 2.</_></rects>
      <tilted>0</tilted></_>
    <_>
      <rects>
        <_>
          29 23 4 1 -1.</_>
        <_>
          31 23 2 1 2.</_></rects>
      <tilted>0</tilted></_>
    <_>
      <rects>
        <_>
          29 24 7 12 -1.</_>
        <_>
          29 30 7 6 2.</_></rects>
      <tilted>0</tilted></_>
    <_>
      <rects>
        <_>
          29 25 8 6 -1.</_>
        <_>
          29 25 4 3 2.</_>
        <_>
          33 28 4 3 2.</_></rects>
      <tilted>0</tilted></_>
    <_>
      <rects>
        <_>
          29 28 4 2 -1.</_>
        <_>
          29 29 4 1 2.</_></rects>
      <tilted>0</tilted></_>
    <_>
      <rects>
        <_>
          29 29 2 12 -1.</_>
        <_>
          29 35 2 6 2.</_></rects>
      <tilted>0</tilted></_>
    <_>
      <rects>
        <_>
          29 32 4 3 -1.</_>
        <_>
          31 32 2 3 2.</_></rects>
      <tilted>0</tilted></_>
    <_>
      <rects>
        <_>
          29 43 10 6 -1.</_>
        <_>
          29 43 5 3 2.</_>
        <_>
          34 46 5 3 2.</_></rects>
      <tilted>0</tilted></_>
    <_>
      <rects>
        <_>
          30 4 3 6 -1.</_>
        <_>
          30 7 3 3 2.</_></rects>
      <tilted>0</tilted></_>
    <_>
      <rects>
        <_>
          30 20 4 6 -1.</_>
        <_>
          32 20 2 6 2.</_></rects>
      <tilted>0</tilted></_>
    <_>
      <rects>
        <_>
          30 20 3 26 -1.</_>
        <_>
          30 33 3 13 2.</_></rects>
      <tilted>0</tilted></_>
    <_>
      <rects>
        <_>
          30 21 9 4 -1.</_>
        <_>
          33 21 3 4 2.</_></rects>
      <tilted>0</tilted></_>
    <_>
      <rects>
        <_>
          30 22 6 1 -1.</_>
        <_>
          32 22 2 1 2.</_></rects>
      <tilted>0</tilted></_>
    <_>
      <rects>
        <_>
          30 23 14 9 -1.</_>
        <_>
          37 23 7 9 2.</_></rects>
      <tilted>0</tilted></_>
    <_>
      <rects>
        <_>
          30 25 10 10 -1.</_>
        <_>
          35 25 5 10 2.</_></rects>
      <tilted>0</tilted></_>
    <_>
      <rects>
        <_>
          30 26 2 2 -1.</_>
        <_>
          31 26 1 2 2.</_></rects>
      <tilted>0</tilted></_>
    <_>
      <rects>
        <_>
          30 30 3 2 -1.</_>
        <_>
          31 30 1 2 2.</_></rects>
      <tilted>0</tilted></_>
    <_>
      <rects>
        <_>
          30 48 12 2 -1.</_>
        <_>
          30 49 12 1 2.</_></rects>
      <tilted>0</tilted></_>
    <_>
      <rects>
        <_>
          31 5 7 2 -1.</_>
        <_>
          31 6 7 1 2.</_></rects>
      <tilted>0</tilted></_>
    <_>
      <rects>
        <_>
          31 17 2 10 -1.</_>
        <_>
          31 17 1 5 2.</_>
        <_>
          32 22 1 5 2.</_></rects>
      <tilted>0</tilted></_>
    <_>
      <rects>
        <_>
          31 20 8 12 -1.</_>
        <_>
          31 26 8 6 2.</_></rects>
      <tilted>0</tilted></_>
    <_>
      <rects>
        <_>
          31 22 3 6 -1.</_>
        <_>
          32 22 1 6 2.</_></rects>
      <tilted>0</tilted></_>
    <_>
      <rects>
        <_>
          31 23 5 12 -1.</_>
        <_>
          31 29 5 6 2.</_></rects>
      <tilted>0</tilted></_>
    <_>
      <rects>
        <_>
          31 26 4 4 -1.</_>
        <_>
          31 26 2 2 2.</_>
        <_>
          33 28 2 2 2.</_></rects>
      <tilted>0</tilted></_>
    <_>
      <rects>
        <_>
          31 26 4 6 -1.</_>
        <_>
          31 26 2 3 2.</_>
        <_>
          33 29 2 3 2.</_></rects>
      <tilted>0</tilted></_>
    <_>
      <rects>
        <_>
          31 26 18 5 -1.</_>
        <_>
          37 26 6 5 2.</_></rects>
      <tilted>0</tilted></_>
    <_>
      <rects>
        <_>
          31 26 14 14 -1.</_>
        <_>
          31 26 7 7 2.</_>
        <_>
          38 33 7 7 2.</_></rects>
      <tilted>0</tilted></_>
    <_>
      <rects>
        <_>
          32 19 12 6 -1.</_>
        <_>
          32 19 6 3 2.</_>
        <_>
          38 22 6 3 2.</_></rects>
      <tilted>0</tilted></_>
    <_>
      <rects>
        <_>
          32 19 12 12 -1.</_>
        <_>
          38 19 6 12 2.</_></rects>
      <tilted>0</tilted></_>
    <_>
      <rects>
        <_>
          32 20 8 18 -1.</_>
        <_>
          36 20 4 18 2.</_></rects>
      <tilted>0</tilted></_>
    <_>
      <rects>
        <_>
          32 22 6 8 -1.</_>
        <_>
          35 22 3 8 2.</_></rects>
      <tilted>0</tilted></_>
    <_>
      <rects>
        <_>
          32 23 10 6 -1.</_>
        <_>
          37 23 5 6 2.</_></rects>
      <tilted>0</tilted></_>
    <_>
      <rects>
        <_>
          33 15 4 24 -1.</_>
        <_>
          33 15 2 12 2.</_>
        <_>
          35 27 2 12 2.</_></rects>
      <tilted>0</tilted></_>
    <_>
      <rects>
        <_>
          33 16 5 6 -1.</_>
        <_>
          33 19 5 3 2.</_></rects>
      <tilted>0</tilted></_>
    <_>
      <rects>
        <_>
          33 19 6 12 -1.</_>
        <_>
          36 19 3 12 2.</_></rects>
      <tilted>0</tilted></_>
    <_>
      <rects>
        <_>
          33 22 1 4 -1.</_>
        <_>
          33 24 1 2 2.</_></rects>
      <tilted>0</tilted></_>
    <_>
      <rects>
        <_>
          34 20 4 8 -1.</_>
        <_>
          34 20 2 4 2.</_>
        <_>
          36 24 2 4 2.</_></rects>
      <tilted>0</tilted></_>
    <_>
      <rects>
        <_>
          34 22 6 6 -1.</_>
        <_>
          34 22 3 3 2.</_>
        <_>
          37 25 3 3 2.</_></rects>
      <tilted>0</tilted></_>
    <_>
      <rects>
        <_>
          34 27 4 10 -1.</_>
        <_>
          36 27 2 10 2.</_></rects>
      <tilted>0</tilted></_>
    <_>
      <rects>
        <_>
          34 30 2 4 -1.</_>
        <_>
          35 30 1 4 2.</_></rects>
      <tilted>0</tilted></_>
    <_>
      <rects>
        <_>
          35 6 1 24 -1.</_>
        <_>
          35 18 1 12 2.</_></rects>
      <tilted>0</tilted></_>
    <_>
      <rects>
        <_>
          35 21 14 16 -1.</_>
        <_>
          35 21 7 8 2.</_>
        <_>
          42 29 7 8 2.</_></rects>
      <tilted>0</tilted></_>
    <_>
      <rects>
        <_>
          35 22 4 8 -1.</_>
        <_>
          35 22 2 4 2.</_>
        <_>
          37 26 2 4 2.</_></rects>
      <tilted>0</tilted></_>
    <_>
      <rects>
        <_>
          35 24 12 14 -1.</_>
        <_>
          39 24 4 14 2.</_></rects>
      <tilted>0</tilted></_>
    <_>
      <rects>
        <_>
          36 0 6 34 -1.</_>
        <_>
          36 0 3 17 2.</_>
        <_>
          39 17 3 17 2.</_></rects>
      <tilted>0</tilted></_>
    <_>
      <rects>
        <_>
          36 6 14 6 -1.</_>
        <_>
          36 6 7 3 2.</_>
        <_>
          43 9 7 3 2.</_></rects>
      <tilted>0</tilted></_>
    <_>
      <rects>
        <_>
          36 8 6 6 -1.</_>
        <_>
          36 8 3 3 2.</_>
        <_>
          39 11 3 3 2.</_></rects>
      <tilted>0</tilted></_>
    <_>
      <rects>
        <_>
          36 17 4 4 -1.</_>
        <_>
          36 17 2 2 2.</_>
        <_>
          38 19 2 2 2.</_></rects>
      <tilted>0</tilted></_>
    <_>
      <rects>
        <_>
          36 20 6 6 -1.</_>
        <_>
          36 20 3 3 2.</_>
        <_>
          39 23 3 3 2.</_></rects>
      <tilted>0</tilted></_>
    <_>
      <rects>
        <_>
          36 22 12 10 -1.</_>
        <_>
          40 22 4 10 2.</_></rects>
      <tilted>0</tilted></_>
    <_>
      <rects>
        <_>
          37 26 4 4 -1.</_>
        <_>
          37 26 2 2 2.</_>
        <_>
          39 28 2 2 2.</_></rects>
      <tilted>0</tilted></_>
    <_>
      <rects>
        <_>
          37 37 8 8 -1.</_>
        <_>
          37 37 4 4 2.</_>
        <_>
          41 41 4 4 2.</_></rects>
      <tilted>0</tilted></_>
    <_>
      <rects>
        <_>
          37 39 4 8 -1.</_>
        <_>
          37 39 2 4 2.</_>
        <_>
          39 43 2 4 2.</_></rects>
      <tilted>0</tilted></_>
    <_>
      <rects>
        <_>
          39 21 4 3 -1.</_>
        <_>
          41 21 2 3 2.</_></rects>
      <tilted>0</tilted></_>
    <_>
      <rects>
        <_>
          42 1 2 8 -1.</_>
        <_>
          43 1 1 8 2.</_></rects>
      <tilted>0</tilted></_>
    <_>
      <rects>
        <_>
          42 30 4 16 -1.</_>
        <_>
          42 30 2 8 2.</_>
        <_>
          44 38 2 8 2.</_></rects>
      <tilted>0</tilted></_>
    <_>
      <rects>
        <_>
          43 28 4 14 -1.</_>
        <_>
          43 28 2 7 2.</_>
        <_>
          45 35 2 7 2.</_></rects>
      <tilted>0</tilted></_>
    <_>
      <rects>
        <_>
          44 14 4 23 -1.</_>
        <_>
          46 14 2 23 2.</_></rects>
      <tilted>0</tilted></_>
    <_>
      <rects>
        <_>
          44 18 2 12 -1.</_>
        <_>
          44 18 1 6 2.</_>
        <_>
          45 24 1 6 2.</_></rects>
      <tilted>0</tilted></_>
    <_>
      <rects>
        <_>
          44 22 2 4 -1.</_>
        <_>
          44 22 1 2 2.</_>
        <_>
          45 24 1 2 2.</_></rects>
      <tilted>0</tilted></_>
    <_>
      <rects>
        <_>
          44 27 4 12 -1.</_>
        <_>
          46 27 2 12 2.</_></rects>
      <tilted>0</tilted></_>
    <_>
      <rects>
        <_>
          45 17 2 5 -1.</_>
        <_>
          46 17 1 5 2.</_></rects>
      <tilted>0</tilted></_>
    <_>
      <rects>
        <_>
          45 23 2 8 -1.</_>
        <_>
          45 23 1 4 2.</_>
        <_>
          46 27 1 4 2.</_></rects>
      <tilted>0</tilted></_>
    <_>
      <rects>
        <_>
          45 23 2 10 -1.</_>
        <_>
          45 23 1 5 2.</_>
        <_>
          46 28 1 5 2.</_></rects>
      <tilted>0</tilted></_>
    <_>
      <rects>
        <_>
          45 24 4 12 -1.</_>
        <_>
          45 24 2 6 2.</_>
        <_>
          47 30 2 6 2.</_></rects>
      <tilted>0</tilted></_>
    <_>
      <rects>
        <_>
          45 25 4 2 -1.</_>
        <_>
          47 25 2 2 2.</_></rects>
      <tilted>0</tilted></_>
    <_>
      <rects>
        <_>
          45 25 4 8 -1.</_>
        <_>
          45 25 2 4 2.</_>
        <_>
          47 29 2 4 2.</_></rects>
      <tilted>0</tilted></_>
    <_>
      <rects>
        <_>
          46 10 4 20 -1.</_>
        <_>
          46 10 2 10 2.</_>
        <_>
          48 20 2 10 2.</_></rects>
      <tilted>0</tilted></_>
    <_>
      <rects>
        <_>
          46 20 2 8 -1.</_>
        <_>
          46 20 1 4 2.</_>
        <_>
          47 24 1 4 2.</_></rects>
      <tilted>0</tilted></_>
    <_>
      <rects>
        <_>
          46 24 2 3 -1.</_>
        <_>
          47 24 1 3 2.</_></rects>
      <tilted>0</tilted></_>
    <_>
      <rects>
        <_>
          46 30 2 4 -1.</_>
        <_>
          47 30 1 4 2.</_></rects>
      <tilted>0</tilted></_>
    <_>
      <rects>
        <_>
          47 22 2 24 -1.</_>
        <_>
          47 22 1 12 2.</_>
        <_>
          48 34 1 12 2.</_></rects>
      <tilted>0</tilted></_>
    <_>
      <rects>
        <_>
          47 30 1 16 -1.</_>
        <_>
          47 38 1 8 2.</_></rects>
      <tilted>0</tilted></_>
    <_>
      <rects>
        <_>
          48 12 2 24 -1.</_>
        <_>
          49 12 1 24 2.</_></rects>
      <tilted>0</tilted></_>
    <_>
      <rects>
        <_>
          48 19 2 20 -1.</_>
        <_>
          49 19 1 20 2.</_></rects>
      <tilted>0</tilted></_></features></cascade>
</opencv_storage>
