<?xml version="1.0"?>
<opencv_storage>
<stage8>
  <maxWeakCount>6</maxWeakCount>
  <stageThreshold>-7.7524924278259277e-01</stageThreshold>
  <weakClassifiers>
    <_>
      <internalNodes>
        0 -1 134045 -1930428417 -496175369 -81922 -890307009 -402688001
        -117964809 -276054017 -889192449</internalNodes>
      <leafValues>
        -4.9325338006019592e-01 6.5147143602371216e-01</leafValues></_>
    <_>
      <internalNodes>
        0 -1 151733 -168296449 2147319547 2066444031 1073723375
        2010643788 -8435748 -193676034 -8931713</internalNodes>
      <leafValues>
        -4.0833127498626709e-01 6.4037722349166870e-01</leafValues></_>
    <_>
      <internalNodes>
        0 -1 156735 1701819647 424635268 1181590719 -799197025
        -1980074769 352606020 -1325547137 1343223467</internalNodes>
      <leafValues>
        -4.5758157968521118e-01 5.9415686130523682e-01</leafValues></_>
    <_>
      <internalNodes>
        0 -1 75575 1652243161 -1875699054 761996287 134545467 1492442872
        -878740701 238589435 190515339</internalNodes>
      <leafValues>
        -4.6780142188072205e-01 6.0066729784011841e-01</leafValues></_>
    <_>
      <internalNodes>
        0 -1 134518 2068545742 264786286 1392968108 -715533456
        -939448134 185213067 23716716 -840439061</internalNodes>
      <leafValues>
        -6.2024414539337158e-01 4.4742134213447571e-01</leafValues></_>
    <_>
      <internalNodes>
        0 -1 86464 1463809745 -1719524608 -1076736131 1609039617
        511616194 -1390756029 217454264 -1163329241</internalNodes>
      <leafValues>
        -4.4521468877792358e-01 6.5782546997070312e-01</leafValues></_></weakClassifiers></stage8>
</opencv_storage>
