<?xml version="1.0"?>
<opencv_storage>
<stage4>
  <maxWeakCount>4</maxWeakCount>
  <stageThreshold>-1.1187628507614136e+00</stageThreshold>
  <weakClassifiers>
    <_>
      <internalNodes>
        0 -1 141357 -5251120 -3 -40977 -131 -9736 -131083 -1 -536870913</internalNodes>
      <leafValues>
        -5.7401812076568604e-01 6.7894130945205688e-01</leafValues></_>
    <_>
      <internalNodes>
        0 -1 137373 -720645122 -817052854 -1845426048 -839812240
        -2128903701 -2021621301 185027028 -34088201</internalNodes>
      <leafValues>
        -6.2955999374389648e-01 5.1076406240463257e-01</leafValues></_>
    <_>
      <internalNodes>
        0 -1 151653 -676859657 -2129061473 17023447 -234257213
        -1474323128 -1416125558 211847240 -1090000313</internalNodes>
      <leafValues>
        -5.8743554353713989e-01 5.5795174837112427e-01</leafValues></_>
    <_>
      <internalNodes>
        0 -1 76571 -889103460 -1861156863 -1743769569 -645185168
        134252760 -1165357056 537526314 1851937044</internalNodes>
      <leafValues>
        -5.8070862293243408e-01 5.1778060197830200e-01</leafValues></_></weakClassifiers></stage4>
</opencv_storage>
