<?xml version="1.0"?>
<opencv_storage>
<stage1>
  <maxWeakCount>9</maxWeakCount>
  <stageThreshold>-9.0528351068496704e-01</stageThreshold>
  <weakClassifiers>
    <_>
      <internalNodes>
        0 -1 2013206 2.5592451915144920e-02</internalNodes>
      <leafValues>
        -4.3387979269027710e-01 8.0606061220169067e-01</leafValues></_>
    <_>
      <internalNodes>
        0 -1 2619434 1.0086953639984131e-02</internalNodes>
      <leafValues>
        -4.2630246281623840e-01 5.7648783922195435e-01</leafValues></_>
    <_>
      <internalNodes>
        0 -1 3001825 8.2137138815596700e-04</internalNodes>
      <leafValues>
        -3.3195933699607849e-01 5.7547700405120850e-01</leafValues></_>
    <_>
      <internalNodes>
        0 -1 1639702 6.2179495580494404e-03</internalNodes>
      <leafValues>
        -1.9330337643623352e-01 7.8243267536163330e-01</leafValues></_>
    <_>
      <internalNodes>
        0 -1 2616600 -1.3754613464698195e-03</internalNodes>
      <leafValues>
        2.2541417181491852e-01 -7.3483753204345703e-01</leafValues></_>
    <_>
      <internalNodes>
        0 -1 2619349 -3.8240063935518265e-02</internalNodes>
      <leafValues>
        2.7953001856803894e-01 -5.3174585103988647e-01</leafValues></_>
    <_>
      <internalNodes>
        0 -1 2594139 -1.6687856987118721e-04</internalNodes>
      <leafValues>
        4.7408184409141541e-01 -3.2186573743820190e-01</leafValues></_>
    <_>
      <internalNodes>
        0 -1 1276746 -4.9905022606253624e-03</internalNodes>
      <leafValues>
        5.9742140769958496e-01 -2.3615254461765289e-01</leafValues></_>
    <_>
      <internalNodes>
        0 -1 2696862 -1.4163851737976074e-03</internalNodes>
      <leafValues>
        2.2685649991035461e-01 -6.3856124877929688e-01</leafValues></_></weakClassifiers></stage1>
</opencv_storage>
