<?xml version="1.0"?>
<opencv_storage>
<stage6>
  <maxWeakCount>26</maxWeakCount>
  <stageThreshold>-6.8085336685180664e-01</stageThreshold>
  <weakClassifiers>
    <_>
      <internalNodes>
        0 -1 2785375 -1.0358832776546478e-02</internalNodes>
      <leafValues>
        7.0128887891769409e-01 -1.1563367396593094e-01</leafValues></_>
    <_>
      <internalNodes>
        0 -1 2180705 3.3595696091651917e-02</internalNodes>
      <leafValues>
        -2.4274061620235443e-01 5.1868313550949097e-01</leafValues></_>
    <_>
      <internalNodes>
        0 -1 3021523 -1.3834596611559391e-03</internalNodes>
      <leafValues>
        4.5915114879608154e-01 -2.5479745864868164e-01</leafValues></_>
    <_>
      <internalNodes>
        0 -1 2773998 -1.2263925746083260e-03</internalNodes>
      <leafValues>
        4.2707493901252747e-01 -2.2615292668342590e-01</leafValues></_>
    <_>
      <internalNodes>
        0 -1 1085761 -5.9951595030725002e-03</internalNodes>
      <leafValues>
        5.6054919958114624e-01 -1.7339733242988586e-01</leafValues></_>
    <_>
      <internalNodes>
        0 -1 2741808 9.3091541202738881e-05</internalNodes>
      <leafValues>
        -2.1825741231441498e-01 4.0274327993392944e-01</leafValues></_>
    <_>
      <internalNodes>
        0 -1 1931045 6.0124590527266264e-04</internalNodes>
      <leafValues>
        -1.6813710331916809e-01 4.5760124921798706e-01</leafValues></_>
    <_>
      <internalNodes>
        0 -1 2846340 7.5208680937066674e-04</internalNodes>
      <leafValues>
        -1.9248542189598083e-01 3.8253915309906006e-01</leafValues></_>
    <_>
      <internalNodes>
        0 -1 1750335 1.1067719606216997e-04</internalNodes>
      <leafValues>
        1.2958709895610809e-01 -5.7924818992614746e-01</leafValues></_>
    <_>
      <internalNodes>
        0 -1 22893 8.3472318947315216e-03</internalNodes>
      <leafValues>
        -1.1841301620006561e-01 6.4351630210876465e-01</leafValues></_>
    <_>
      <internalNodes>
        0 -1 1467791 -1.1848687427118421e-03</internalNodes>
      <leafValues>
        5.6001538038253784e-01 -1.2696820497512817e-01</leafValues></_>
    <_>
      <internalNodes>
        0 -1 1466377 1.6110118012875319e-03</internalNodes>
      <leafValues>
        -1.5600249171257019e-01 4.3587705492973328e-01</leafValues></_>
    <_>
      <internalNodes>
        0 -1 608784 -4.1671083308756351e-03</internalNodes>
      <leafValues>
        3.6710819602012634e-01 -1.9495525956153870e-01</leafValues></_>
    <_>
      <internalNodes>
        0 -1 913068 9.9617261439561844e-03</internalNodes>
      <leafValues>
        -1.3156256079673767e-01 5.9480357170104980e-01</leafValues></_>
    <_>
      <internalNodes>
        0 -1 2573875 1.7470495367888361e-04</internalNodes>
      <leafValues>
        -2.5622817873954773e-01 3.0802807211875916e-01</leafValues></_>
    <_>
      <internalNodes>
        0 -1 3001326 1.2178076431155205e-03</internalNodes>
      <leafValues>
        -1.6373659670352936e-01 5.0621157884597778e-01</leafValues></_>
    <_>
      <internalNodes>
        0 -1 2473364 -4.2017377912998199e-02</internalNodes>
      <leafValues>
        3.5384541749954224e-01 -2.1925215423107147e-01</leafValues></_>
    <_>
      <internalNodes>
        0 -1 2274496 -1.2062304653227329e-02</internalNodes>
      <leafValues>
        1.1019475013017654e-01 -7.1393501758575439e-01</leafValues></_>
    <_>
      <internalNodes>
        0 -1 1927046 7.5438802014105022e-05</internalNodes>
      <leafValues>
        1.3507302105426788e-01 -4.8247650265693665e-01</leafValues></_>
    <_>
      <internalNodes>
        0 -1 642232 -3.2099857926368713e-03</internalNodes>
      <leafValues>
        3.9616078138351440e-01 -1.9103299081325531e-01</leafValues></_>
    <_>
      <internalNodes>
        0 -1 2694011 1.7405091784894466e-03</internalNodes>
      <leafValues>
        -2.8428021073341370e-01 2.7526399493217468e-01</leafValues></_>
    <_>
      <internalNodes>
        0 -1 1241491 6.3770457927603275e-05</internalNodes>
      <leafValues>
        1.5434046089649200e-01 -4.9294018745422363e-01</leafValues></_>
    <_>
      <internalNodes>
        0 -1 2946475 -7.3951101512648165e-05</internalNodes>
      <leafValues>
        -3.1975841522216797e-01 2.0575417578220367e-01</leafValues></_>
    <_>
      <internalNodes>
        0 -1 2657265 8.0351682845503092e-04</internalNodes>
      <leafValues>
        8.8840238749980927e-02 -7.3287034034729004e-01</leafValues></_>
    <_>
      <internalNodes>
        0 -1 3007774 -3.3995832782238722e-03</internalNodes>
      <leafValues>
        4.2900589108467102e-01 -1.7415857315063477e-01</leafValues></_>
    <_>
      <internalNodes>
        0 -1 2961265 1.2372452765703201e-03</internalNodes>
      <leafValues>
        -2.0527194440364838e-01 3.5433641076087952e-01</leafValues></_></weakClassifiers></stage6>
</opencv_storage>
